{
  "n_estimators": 1,
  "max_depth": 32,
  "feature_importances": [
    0.04032032162307633,
    0.06400722368082301,
    0.059217412148204494,
    0.1772945179691152,
    0.10603927704742575,
    0.5137264449245871,
    0.022785410487398534,
    0.016609392119369615
  ],
  "estimators": [
    {
      "n_nodes": 24589,
      "children_left": [
        1,
        -1,
        3,
        4,
        5,
        6,
        7,
        -1,
        9,
        10,
        11,
        12,
        13,
        14,
        15,
        16,
        17,
        18,
        -1,
        20,
        21,
        -1,
        23,
        -1,
        -1,
        -1,
        -1,
        28,
        29,
        30,
        -1,
        32,
        -1,
        -1,
        35,
        36,
        37,
        38,
        -1,
        -1,
        -1,
        42,
        43,
        44,
        45,
        46,
        -1,
        -1,
        -1,
        -1,
        -1,
        -1,
        -1,
        54,
        -1,
        56,
        57,
        58,
        -1,
        60,
        -1,
        62,
        63,
        64,
        -1,
        66,
        -1,
        -1,
        -1,
        -1,
        -1,
        72,
        -1,
        74,
        75,
        76,
        77,
        -1,
        79,
        80,
        -1,
        82,
        -1,
        -1,
        85,
        -1,
        87,
        -1,
        -1,
        -1,
        -1,
        -1,
        93,
        94,
        -1,
        96,
        97,
        98,
        -1,
        -1,
        101,
        102,
        -1,
        -1,
        -1,
        106,
        -1,
        108,
        109,
        110,
        -1,
        112,
        -1,
        -1,
        115,
        116,
        117,
        118,
        -1,
        120,
        -1,
        -1,
        123,
        124,
        -1,
        -1,
        -1,
        128,
        129,
        130,
        -1,
        -1,
        -1,
        134,
        -1,
        136,
        -1,
        138,
        -1,
        140,
        -1,
        -1,
        -1,
        144,
        -1,
        146,
        -1,
        148,
        149,
        -1,
        151,
        152,
        -1,
        -1,
        -1,
        156,
        -1,
        158,
        159,
        -1,
        -1,
        -1,
        163,
        -1,
        165,
        166,
        167,
        -1,
        169,
        170,
        -1,
        -1,
        -1,
        -1,
        175,
        -1,
        177,
        178,
        179,
        -1,
        -1,
        182,
        183,
        184,
        -1,
        186,
        187,
        -1,
        189,
        -1,
        -1,
        -1,
        -1,
        -1,
        195,
        196,
        -1,
        -1,
        199,
        -1,
        201,
        -1,
        203,
        -1,
        205,
        -1,
        207,
        208,
        209,
        210,
        -1,
        -1,
        -1,
        214,
        215,
        -1,
        217,
        -1,
        -1,
        -1,
        -1,
        222,
        223,
        224,
        225,
        226,
        227,
        -1,
        -1,
        -1,
        -1,
        232,
        233,
        234,
        -1,
        -1,
        -1,
        238,
        -1,
        240,
        -1,
        242,
        -1,
        -1,
        245,
        246,
        247,
        248,
        249,
        -1,
        251,
        252,
        -1,
        -1,
        255,
        -1,
        257,
        -1,
        259,
        -1,
        261,
        -1,
        -1,
        -1,
        -1,
        266,
        267,
        268,
        -1,
        -1,
        -1,
        272,
        -1,
        274,
        275,
        -1,
        -1,
        -1,
        279,
        -1,
        281,
        282,
        283,
        284,
        -1,
        -1,
        -1,
        288,
        -1,
        290,
        291,
        292,
        293,
        294,
        -1,
        -1,
        297,
        -1,
        -1,
        -1,
        -1,
        -1,
        -1,
        -1,
        305,
        -1,
        307,
        308,
        309,
        310,
        -1,
        -1,
        -1,
        314,
        315,
        -1,
        -1,
        -1,
        319,
        320,
        -1,
        -1,
        -1,
        324,
        325,
        326,
        327,
        -1,
        -1,
        330,
        331,
        -1,
        -1,
        -1,
        -1,
        336,
        337,
        338,
        339,
        -1,
        341,
        -1,
        -1,
        -1,
        345,
        346,
        -1,
        -1,
        -1,
        350,
        351,
        352,
        -1,
        354,
        355,
        -1,
        -1,
        -1,
        359,
        -1,
        361,
        -1,
        363,
        -1,
        365,
        366,
        -1,
        -1,
        -1,
        370,
        -1,
        -1,
        373,
        374,
        375,
        -1,
        377,
        -1,
        379,
        380,
        381,
        -1,
        -1,
        -1,
        385,
        -1,
        387,
        -1,
        -1,
        -1,
        391,
        392,
        393,
        -1,
        -1,
        -1,
        397,
        398,
        -1,
        400,
        -1,
        402,
        -1,
        404,
        -1,
        406,
        407,
        -1,
        -1,
        -1,
        411,
        412,
        -1,
        414,
        415,
        416,
        417,
        -1,
        -1,
        -1,
        -1,
        -1,
        423,
        -1,
        -1,
        426,
        427,
        428,
        429,
        430,
        431,
        432,
        433,
        -1,
        -1,
        436,
        437,
        438,
        439,
        440,
        441,
        442,
        -1,
        -1,
        -1,
        446,
        -1,
        448,
        -1,
        -1,
        451,
        -1,
        453,
        454,
        -1,
        -1,
        -1,
        -1,
        459,
        460,
        461,
        -1,
        -1,
        464,
        -1,
        466,
        467,
        468,
        -1,
        -1,
        471,
        472,
        -1,
        474,
        -1,
        476,
        -1,
        -1,
        479,
        -1,
        -1,
        -1,
        483,
        -1,
        485,
        -1,
        487,
        488,
        489,
        -1,
        491,
        -1,
        493,
        -1,
        -1,
        496,
        -1,
        -1,
        -1,
        500,
        501,
        502,
        503,
        504,
        -1,
        506,
        -1,
        -1,
        -1,
        510,
        -1,
        512,
        513,
        -1,
        -1,
        -1,
        517,
        518,
        519,
        520,
        -1,
        522,
        -1,
        -1,
        -1,
        -1,
        -1,
        528,
        529,
        530,
        531,
        532,
        533,
        534,
        535,
        536,
        537,
        -1,
        539,
        -1,
        541,
        -1,
        543,
        -1,
        -1,
        -1,
        -1,
        548,
        -1,
        550,
        -1,
        -1,
        553,
        554,
        555,
        -1,
        557,
        -1,
        -1,
        560,
        -1,
        562,
        -1,
        564,
        565,
        566,
        567,
        -1,
        569,
        -1,
        -1,
        -1,
        -1,
        -1,
        575,
        576,
        -1,
        578,
        -1,
        -1,
        581,
        -1,
        583,
        -1,
        -1,
        -1,
        587,
        588,
        -1,
        -1,
        591,
        592,
        593,
        594,
        595,
        596,
        -1,
        598,
        599,
        -1,
        -1,
        -1,
        -1,
        -1,
        605,
        606,
        -1,
        -1,
        -1,
        -1,
        611,
        -1,
        613,
        614,
        615,
        -1,
        617,
        -1,
        619,
        -1,
        621,
        -1,
        -1,
        624,
        625,
        626,
        627,
        -1,
        629,
        -1,
        -1,
        -1,
        633,
        -1,
        635,
        -1,
        -1,
        -1,
        639,
        640,
        -1,
        642,
        643,
        644,
        -1,
        -1,
        -1,
        -1,
        649,
        -1,
        651,
        -1,
        653,
        -1,
        655,
        -1,
        657,
        -1,
        659,
        -1,
        -1,
        662,
        -1,
        664,
        665,
        666,
        667,
        668,
        -1,
        -1,
        -1,
        672,
        673,
        674,
        675,
        676,
        677,
        678,
        -1,
        -1,
        681,
        682,
        -1,
        -1,
        685,
        -1,
        -1,
        -1,
        -1,
        690,
        -1,
        692,
        693,
        694,
        695,
        -1,
        -1,
        698,
        -1,
        -1,
        701,
        702,
        -1,
        -1,
        705,
        -1,
        -1,
        708,
        -1,
        710,
        711,
        -1,
        -1,
        714,
        -1,
        -1,
        717,
        -1,
        719,
        -1,
        721,
        -1,
        723,
        -1,
        -1,
        726,
        727,
        -1,
        729,
        730,
        -1,
        -1,
        733,
        734,
        -1,
        -1,
        737,
        738,
        739,
        -1,
        -1,
        -1,
        743,
        -1,
        745,
        -1,
        -1,
        748,
        -1,
        750,
        751,
        -1,
        753,
        -1,
        -1,
        756,
        -1,
        758,
        -1,
        -1,
        761,
        762,
        -1,
        764,
        -1,
        766,
        -1,
        -1,
        -1,
        770,
        771,
        -1,
        -1,
        774,
        775,
        776,
        -1,
        778,
        -1,
        780,
        -1,
        782,
        783,
        784,
        -1,
        -1,
        -1,
        -1,
        789,
        790,
        791,
        -1,
        793,
        794,
        795,
        -1,
        797,
        -1,
        -1,
        -1,
        -1,
        -1,
        803,
        -1,
        805,
        -1,
        807,
        -1,
        -1,
        810,
        811,
        -1,
        813,
        -1,
        815,
        -1,
        -1,
        -1,
        819,
        -1,
        821,
        -1,
        823,
        -1,
        825,
        -1,
        -1,
        -1,
        829,
        830,
        831,
        832,
        833,
        834,
        835,
        836,
        837,
        838,
        -1,
        -1,
        -1,
        842,
        843,
        844,
        845,
        846,
        847,
        848,
        -1,
        850,
        -1,
        -1,
        853,
        -1,
        -1,
        856,
        857,
        -1,
        -1,
        860,
        861,
        862,
        863,
        -1,
        -1,
        -1,
        -1,
        -1,
        -1,
        -1,
        871,
        872,
        873,
        874,
        -1,
        876,
        -1,
        878,
        -1,
        880,
        -1,
        -1,
        883,
        884,
        885,
        886,
        -1,
        888,
        -1,
        -1,
        -1,
        -1,
        893,
        894,
        -1,
        896,
        -1,
        -1,
        -1,
        900,
        901,
        902,
        -1,
        904,
        905,
        -1,
        -1,
        -1,
        -1,
        910,
        911,
        -1,
        913,
        -1,
        915,
        916,
        -1,
        -1,
        919,
        -1,
        -1,
        922,
        -1,
        -1,
        925,
        -1,
        927,
        -1,
        929,
        -1,
        931,
        -1,
        933,
        934,
        935,
        -1,
        -1,
        938,
        -1,
        -1,
        -1,
        -1,
        943,
        -1,
        -1,
        946,
        947,
        948,
        949,
        950,
        951,
        952,
        953,
        954,
        955,
        -1,
        957,
        -1,
        -1,
        -1,
        -1,
        962,
        963,
        964,
        965,
        -1,
        -1,
        -1,
        969,
        970,
        -1,
        -1,
        -1,
        974,
        975,
        976,
        977,
        -1,
        -1,
        -1,
        -1,
        -1,
        983,
        -1,
        985,
        986,
        -1,
        988,
        -1,
        990,
        -1,
        -1,
        -1,
        994,
        -1,
        996,
        997,
        998,
        999,
        1000,
        -1,
        1002,
        -1,
        -1,
        1005,
        1006,
        -1,
        -1,
        -1,
        1010,
        1011,
        1012,
        -1,
        -1,
        -1,
        -1,
        1017,
        -1,
        -1,
        -1,
        1021,
        -1,
        -1,
        1024,
        1025,
        1026,
        1027,
        1028,
        -1,
        1030,
        -1,
        1032,
        -1,
        -1,
        -1,
        -1,
        -1,
        1038,
        -1,
        1040,
        1041,
        1042,
        1043,
        1044,
        -1,
        -1,
        1047,
        -1,
        1049,
        -1,
        -1,
        1052,
        1053,
        -1,
        1055,
        -1,
        -1,
        1058,
        1059,
        1060,
        -1,
        -1,
        -1,
        1064,
        -1,
        -1,
        1067,
        -1,
        -1,
        -1,
        1071,
        1072,
        1073,
        -1,
        1075,
        -1,
        -1,
        1078,
        1079,
        -1,
        -1,
        1082,
        1083,
        1084,
        1085,
        -1,
        1087,
        1088,
        -1,
        -1,
        -1,
        1092,
        -1,
        1094,
        -1,
        1096,
        -1,
        -1,
        1099,
        -1,
        1101,
        1102,
        1103,
        -1,
        -1,
        -1,
        -1,
        1108,
        -1,
        -1,
        1111,
        1112,
        1113,
        -1,
        -1,
        1116,
        1117,
        1118,
        -1,
        -1,
        -1,
        1122,
        -1,
        1124,
        1125,
        -1,
        1127,
        -1,
        -1,
        -1,
        1131,
        1132,
        1133,
        -1,
        -1,
        1136,
        1137,
        -1,
        -1,
        1140,
        1141,
        -1,
        -1,
        -1,
        -1,
        1146,
        1147,
        1148,
        1149,
        -1,
        1151,
        -1,
        1153,
        -1,
        1155,
        -1,
        -1,
        1158,
        1159,
        -1,
        1161,
        -1,
        -1,
        1164,
        1165,
        1166,
        1167,
        1168,
        -1,
        1170,
        1171,
        -1,
        -1,
        -1,
        1175,
        -1,
        1177,
        -1,
        -1,
        1180,
        1181,
        1182,
        -1,
        -1,
        1185,
        -1,
        1187,
        -1,
        -1,
        1190,
        1191,
        1192,
        -1,
        -1,
        1195,
        -1,
        -1,
        -1,
        1199,
        -1,
        1201,
        -1,
        1203,
        1204,
        -1,
        1206,
        -1,
        -1,
        -1,
        1210,
        -1,
        1212,
        1213,
        -1,
        -1,
        1216,
        -1,
        1218,
        1219,
        1220,
        -1,
        -1,
        1223,
        -1,
        -1,
        1226,
        1227,
        -1,
        -1,
        -1,
        1231,
        -1,
        1233,
        1234,
        -1,
        -1,
        -1,
        1238,
        -1,
        1240,
        -1,
        -1,
        1243,
        1244,
        1245,
        1246,
        -1,
        1248,
        1249,
        1250,
        1251,
        -1,
        1253,
        -1,
        1255,
        1256,
        -1,
        -1,
        -1,
        -1,
        -1,
        1262,
        -1,
        1264,
        -1,
        1266,
        -1,
        -1,
        1269,
        1270,
        1271,
        1272,
        1273,
        1274,
        -1,
        -1,
        -1,
        -1,
        -1,
        1280,
        1281,
        -1,
        1283,
        -1,
        -1,
        1286,
        1287,
        -1,
        1289,
        -1,
        -1,
        -1,
        1293,
        -1,
        1295,
        -1,
        1297,
        -1,
        1299,
        1300,
        -1,
        -1,
        1303,
        -1,
        1305,
        -1,
        1307,
        -1,
        1309,
        -1,
        1311,
        -1,
        -1,
        1314,
        1315,
        -1,
        1317,
        -1,
        1319,
        -1,
        1321,
        -1,
        -1,
        -1,
        -1,
        1326,
        -1,
        -1,
        -1,
        1330,
        1331,
        -1,
        -1,
        -1,
        1335,
        -1,
        1337,
        -1,
        1339,
        1340,
        1341,
        1342,
        1343,
        1344,
        1345,
        -1,
        1347,
        -1,
        1349,
        -1,
        -1,
        1352,
        -1,
        -1,
        1355,
        1356,
        -1,
        1358,
        -1,
        -1,
        -1,
        1362,
        1363,
        1364,
        1365,
        -1,
        1367,
        -1,
        -1,
        -1,
        -1,
        1372,
        1373,
        -1,
        -1,
        -1,
        1377,
        1378,
        -1,
        1380,
        1381,
        -1,
        -1,
        1384,
        1385,
        1386,
        -1,
        1388,
        1389,
        -1,
        1391,
        -1,
        -1,
        -1,
        1395,
        -1,
        1397,
        1398,
        1399,
        1400,
        -1,
        1402,
        -1,
        -1,
        1405,
        -1,
        -1,
        1408,
        -1,
        1410,
        -1,
        -1,
        -1,
        -1,
        -1,
        1416,
        1417,
        -1,
        1419,
        1420,
        -1,
        -1,
        -1,
        -1,
        1425,
        1426,
        1427,
        1428,
        1429,
        1430,
        1431,
        1432,
        1433,
        1434,
        1435,
        1436,
        -1,
        1438,
        -1,
        -1,
        -1,
        -1,
        -1,
        1444,
        1445,
        -1,
        1447,
        -1,
        -1,
        -1,
        -1,
        1452,
        1453,
        1454,
        -1,
        1456,
        -1,
        -1,
        -1,
        -1,
        1461,
        -1,
        -1,
        -1,
        1465,
        -1,
        -1,
        1468,
        1469,
        1470,
        -1,
        1472,
        -1,
        -1,
        -1,
        1476,
        -1,
        -1,
        1479,
        -1,
        1481,
        -1,
        1483,
        1484,
        -1,
        1486,
        -1,
        1488,
        1489,
        1490,
        -1,
        -1,
        -1,
        -1,
        1495,
        -1,
        1497,
        1498,
        1499,
        1500,
        -1,
        -1,
        -1,
        -1,
        1505,
        -1,
        1507,
        1508,
        -1,
        1510,
        1511,
        -1,
        1513,
        1514,
        -1,
        1516,
        -1,
        -1,
        -1,
        -1,
        1521,
        1522,
        -1,
        1524,
        1525,
        1526,
        -1,
        1528,
        -1,
        -1,
        1531,
        1532,
        -1,
        -1,
        -1,
        1536,
        -1,
        -1,
        1539,
        1540,
        -1,
        -1,
        1543,
        -1,
        1545,
        -1,
        -1,
        1548,
        -1,
        1550,
        -1,
        1552,
        1553,
        1554,
        -1,
        -1,
        -1,
        1558,
        1559,
        -1,
        -1,
        -1,
        1563,
        1564,
        -1,
        1566,
        1567,
        -1,
        1569,
        -1,
        1571,
        -1,
        -1,
        1574,
        1575,
        1576,
        1577,
        1578,
        -1,
        -1,
        -1,
        -1,
        -1,
        -1,
        1585,
        -1,
        1587,
        -1,
        -1,
        1590,
        -1,
        1592,
        -1,
        -1,
        1595,
        1596,
        1597,
        1598,
        -1,
        1600,
        -1,
        -1,
        -1,
        -1,
        -1,
        1606,
        1607,
        1608,
        1609,
        1610,
        1611,
        1612,
        -1,
        -1,
        -1,
        1616,
        -1,
        1618,
        1619,
        1620,
        -1,
        -1,
        1623,
        -1,
        1625,
        -1,
        1627,
        -1,
        -1,
        1630,
        1631,
        1632,
        -1,
        -1,
        -1,
        -1,
        1637,
        1638,
        1639,
        -1,
        1641,
        1642,
        1643,
        1644,
        -1,
        1646,
        -1,
        1648,
        -1,
        -1,
        1651,
        -1,
        1653,
        -1,
        -1,
        1656,
        1657,
        -1,
        1659,
        1660,
        1661,
        1662,
        -1,
        -1,
        1665,
        -1,
        1667,
        -1,
        1669,
        -1,
        -1,
        1672,
        -1,
        1674,
        -1,
        1676,
        1677,
        -1,
        -1,
        1680,
        -1,
        -1,
        1683,
        -1,
        1685,
        -1,
        -1,
        1688,
        -1,
        1690,
        -1,
        1692,
        1693,
        1694,
        -1,
        -1,
        -1,
        1698,
        -1,
        1700,
        -1,
        -1,
        1703,
        1704,
        -1,
        1706,
        1707,
        1708,
        1709,
        -1,
        1711,
        -1,
        -1,
        -1,
        -1,
        -1,
        -1,
        -1,
        -1,
        -1,
        1721,
        -1,
        1723,
        1724,
        1725,
        1726,
        1727,
        -1,
        1729,
        1730,
        1731,
        -1,
        1733,
        1734,
        1735,
        1736,
        -1,
        1738,
        1739,
        -1,
        -1,
        -1,
        -1,
        -1,
        -1,
        -1,
        1747,
        -1,
        1749,
        -1,
        1751,
        1752,
        1753,
        -1,
        1755,
        -1,
        -1,
        1758,
        -1,
        -1,
        -1,
        1762,
        1763,
        -1,
        1765,
        1766,
        1767,
        -1,
        -1,
        -1,
        -1,
        1772,
        -1,
        -1,
        1775,
        -1,
        1777,
        -1,
        -1,
        1780,
        1781,
        1782,
        -1,
        1784,
        1785,
        -1,
        1787,
        -1,
        1789,
        -1,
        -1,
        -1,
        -1,
        1794,
        1795,
        1796,
        1797,
        1798,
        -1,
        1800,
        -1,
        -1,
        -1,
        -1,
        1805,
        1806,
        1807,
        1808,
        -1,
        -1,
        -1,
        -1,
        -1,
        1814,
        1815,
        1816,
        -1,
        1818,
        -1,
        1820,
        -1,
        -1,
        -1,
        1824,
        1825,
        1826,
        -1,
        -1,
        -1,
        -1,
        1831,
        1832,
        -1,
        -1,
        -1,
        1836,
        1837,
        1838,
        1839,
        -1,
        1841,
        -1,
        1843,
        -1,
        -1,
        1846,
        1847,
        1848,
        1849,
        -1,
        -1,
        1852,
        -1,
        1854,
        -1,
        -1,
        -1,
        -1,
        1859,
        1860,
        1861,
        -1,
        -1,
        -1,
        -1,
        1866,
        1867,
        1868,
        1869,
        1870,
        1871,
        -1,
        1873,
        -1,
        -1,
        1876,
        -1,
        1878,
        -1,
        -1,
        1881,
        1882,
        1883,
        1884,
        -1,
        1886,
        -1,
        -1,
        -1,
        1890,
        -1,
        1892,
        -1,
        1894,
        1895,
        -1,
        -1,
        1898,
        1899,
        -1,
        1901,
        -1,
        -1,
        -1,
        1905,
        1906,
        1907,
        1908,
        1909,
        1910,
        -1,
        -1,
        -1,
        1914,
        -1,
        -1,
        1917,
        -1,
        -1,
        -1,
        -1,
        1922,
        1923,
        -1,
        1925,
        -1,
        1927,
        -1,
        -1,
        1930,
        -1,
        1932,
        1933,
        -1,
        1935,
        1936,
        1937,
        -1,
        -1,
        -1,
        -1,
        1942,
        1943,
        1944,
        -1,
        -1,
        -1,
        1948,
        1949,
        -1,
        -1,
        -1,
        1953,
        1954,
        -1,
        1956,
        -1,
        1958,
        -1,
        1960,
        1961,
        -1,
        -1,
        -1,
        1965,
        -1,
        1967,
        1968,
        1969,
        1970,
        1971,
        -1,
        -1,
        1974,
        1975,
        -1,
        1977,
        1978,
        -1,
        -1,
        -1,
        1982,
        -1,
        1984,
        1985,
        -1,
        1987,
        -1,
        -1,
        -1,
        1991,
        1992,
        -1,
        -1,
        -1,
        1996,
        1997,
        1998,
        -1,
        2000,
        2001,
        2002,
        2003,
        2004,
        2005,
        -1,
        -1,
        -1,
        -1,
        -1,
        -1,
        -1,
        -1,
        -1,
        -1,
        2016,
        -1,
        2018,
        2019,
        -1,
        -1,
        -1,
        2023,
        2024,
        2025,
        2026,
        2027,
        2028,
        2029,
        2030,
        2031,
        2032,
        -1,
        -1,
        -1,
        2036,
        2037,
        -1,
        2039,
        -1,
        -1,
        2042,
        -1,
        -1,
        2045,
        2046,
        2047,
        2048,
        -1,
        -1,
        -1,
        -1,
        2053,
        -1,
        2055,
        -1,
        2057,
        -1,
        -1,
        2060,
        -1,
        2062,
        2063,
        2064,
        2065,
        -1,
        -1,
        2068,
        -1,
        2070,
        2071,
        -1,
        2073,
        2074,
        -1,
        -1,
        -1,
        2078,
        -1,
        2080,
        2081,
        -1,
        -1,
        -1,
        2085,
        2086,
        -1,
        -1,
        2089,
        2090,
        2091,
        2092,
        -1,
        -1,
        -1,
        2096,
        -1,
        2098,
        -1,
        -1,
        2101,
        2102,
        2103,
        2104,
        2105,
        -1,
        2107,
        -1,
        -1,
        -1,
        -1,
        -1,
        -1,
        2114,
        -1,
        -1,
        2117,
        2118,
        -1,
        2120,
        -1,
        2122,
        2123,
        -1,
        2125,
        2126,
        -1,
        2128,
        -1,
        -1,
        -1,
        -1,
        2133,
        2134,
        -1,
        2136,
        2137,
        2138,
        2139,
        -1,
        2141,
        -1,
        -1,
        -1,
        2145,
        -1,
        2147,
        -1,
        2149,
        -1,
        2151,
        -1,
        2153,
        -1,
        -1,
        -1,
        2157,
        2158,
        2159,
        2160,
        2161,
        -1,
        2163,
        2164,
        2165,
        -1,
        2167,
        -1,
        -1,
        -1,
        -1,
        2172,
        2173,
        -1,
        -1,
        -1,
        2177,
        2178,
        -1,
        2180,
        2181,
        -1,
        2183,
        -1,
        -1,
        2186,
        -1,
        2188,
        -1,
        2190,
        2191,
        2192,
        2193,
        -1,
        -1,
        -1,
        -1,
        -1,
        2199,
        -1,
        -1,
        2202,
        2203,
        -1,
        2205,
        2206,
        -1,
        2208,
        -1,
        -1,
        2211,
        2212,
        -1,
        -1,
        -1,
        2216,
        2217,
        2218,
        -1,
        2220,
        -1,
        -1,
        -1,
        2224,
        -1,
        2226,
        -1,
        -1,
        2229,
        -1,
        -1,
        2232,
        2233,
        2234,
        -1,
        2236,
        2237,
        2238,
        2239,
        -1,
        2241,
        -1,
        2243,
        2244,
        2245,
        -1,
        -1,
        -1,
        2249,
        2250,
        2251,
        -1,
        -1,
        -1,
        2255,
        -1,
        2257,
        -1,
        2259,
        -1,
        -1,
        2262,
        2263,
        -1,
        2265,
        -1,
        2267,
        -1,
        2269,
        -1,
        -1,
        -1,
        2273,
        2274,
        2275,
        -1,
        2277,
        -1,
        -1,
        2280,
        -1,
        2282,
        -1,
        2284,
        -1,
        -1,
        -1,
        2288,
        2289,
        2290,
        2291,
        2292,
        2293,
        -1,
        2295,
        -1,
        2297,
        -1,
        -1,
        -1,
        -1,
        2302,
        -1,
        2304,
        2305,
        2306,
        2307,
        -1,
        -1,
        -1,
        2311,
        -1,
        2313,
        -1,
        2315,
        2316,
        2317,
        -1,
        2319,
        -1,
        2321,
        -1,
        2323,
        -1,
        -1,
        2326,
        2327,
        -1,
        -1,
        -1,
        -1,
        -1,
        2333,
        2334,
        2335,
        2336,
        -1,
        2338,
        2339,
        -1,
        2341,
        -1,
        2343,
        -1,
        2345,
        -1,
        -1,
        2348,
        -1,
        2350,
        2351,
        2352,
        -1,
        -1,
        2355,
        -1,
        2357,
        -1,
        -1,
        2360,
        -1,
        2362,
        -1,
        2364,
        -1,
        2366,
        -1,
        2368,
        -1,
        -1,
        2371,
        2372,
        2373,
        -1,
        2375,
        -1,
        2377,
        2378,
        2379,
        -1,
        2381,
        2382,
        -1,
        2384,
        2385,
        -1,
        2387,
        -1,
        -1,
        2390,
        -1,
        2392,
        -1,
        -1,
        -1,
        -1,
        2397,
        -1,
        2399,
        -1,
        2401,
        -1,
        -1,
        -1,
        2405,
        2406,
        2407,
        -1,
        -1,
        -1,
        2411,
        2412,
        -1,
        -1,
        -1,
        2416,
        -1,
        -1,
        2419,
        2420,
        2421,
        2422,
        -1,
        2424,
        2425,
        -1,
        -1,
        -1,
        -1,
        -1,
        2431,
        -1,
        2433,
        -1,
        2435,
        -1,
        -1,
        2438,
        -1,
        -1,
        2441,
        2442,
        2443,
        2444,
        2445,
        2446,
        2447,
        2448,
        2449,
        2450,
        2451,
        2452,
        2453,
        2454,
        2455,
        2456,
        2457,
        2458,
        2459,
        -1,
        -1,
        -1,
        -1,
        -1,
        2465,
        2466,
        2467,
        -1,
        -1,
        -1,
        2471,
        -1,
        2473,
        -1,
        -1,
        -1,
        2477,
        2478,
        2479,
        -1,
        2481,
        -1,
        -1,
        2484,
        -1,
        2486,
        -1,
        2488,
        -1,
        -1,
        2491,
        -1,
        2493,
        2494,
        2495,
        -1,
        -1,
        -1,
        -1,
        2500,
        -1,
        2502,
        -1,
        -1,
        2505,
        -1,
        2507,
        2508,
        2509,
        -1,
        -1,
        2512,
        2513,
        -1,
        -1,
        -1,
        -1,
        2518,
        -1,
        2520,
        -1,
        2522,
        -1,
        2524,
        -1,
        -1,
        2527,
        2528,
        -1,
        -1,
        -1,
        -1,
        2533,
        2534,
        2535,
        2536,
        -1,
        2538,
        -1,
        -1,
        -1,
        2542,
        2543,
        2544,
        2545,
        2546,
        -1,
        2548,
        2549,
        -1,
        2551,
        -1,
        -1,
        -1,
        -1,
        -1,
        -1,
        2558,
        -1,
        -1,
        2561,
        2562,
        -1,
        -1,
        -1,
        2566,
        2567,
        2568,
        -1,
        -1,
        -1,
        -1,
        2573,
        2574,
        2575,
        2576,
        2577,
        2578,
        2579,
        2580,
        -1,
        -1,
        -1,
        2584,
        2585,
        2586,
        -1,
        2588,
        2589,
        2590,
        2591,
        -1,
        2593,
        -1,
        -1,
        -1,
        2597,
        -1,
        2599,
        -1,
        -1,
        -1,
        -1,
        -1,
        2605,
        -1,
        2607,
        2608,
        -1,
        -1,
        -1,
        2612,
        2613,
        2614,
        2615,
        -1,
        2617,
        -1,
        -1,
        2620,
        2621,
        2622,
        -1,
        2624,
        -1,
        -1,
        -1,
        2628,
        -1,
        2630,
        -1,
        -1,
        -1,
        2634,
        -1,
        2636,
        -1,
        2638,
        2639,
        -1,
        2641,
        -1,
        -1,
        -1,
        2645,
        2646,
        -1,
        2648,
        2649,
        -1,
        2651,
        2652,
        -1,
        2654,
        -1,
        2656,
        -1,
        2658,
        -1,
        -1,
        -1,
        -1,
        2663,
        2664,
        2665,
        -1,
        2667,
        -1,
        -1,
        2670,
        -1,
        2672,
        -1,
        -1,
        -1,
        2676,
        2677,
        2678,
        -1,
        2680,
        2681,
        -1,
        2683,
        -1,
        2685,
        -1,
        2687,
        2688,
        -1,
        2690,
        -1,
        -1,
        2693,
        2694,
        -1,
        -1,
        2697,
        -1,
        2699,
        -1,
        2701,
        -1,
        -1,
        2704,
        -1,
        -1,
        -1,
        2708,
        2709,
        -1,
        2711,
        -1,
        -1,
        2714,
        2715,
        -1,
        2717,
        -1,
        -1,
        2720,
        -1,
        2722,
        -1,
        -1,
        2725,
        -1,
        -1,
        2728,
        2729,
        -1,
        -1,
        2732,
        -1,
        -1,
        2735,
        2736,
        -1,
        2738,
        -1,
        2740,
        -1,
        -1,
        2743,
        -1,
        2745,
        -1,
        -1,
        2748,
        -1,
        2750,
        -1,
        2752,
        -1,
        2754,
        -1,
        -1,
        2757,
        2758,
        2759,
        -1,
        2761,
        -1,
        2763,
        -1,
        2765,
        -1,
        -1,
        -1,
        -1,
        2770,
        2771,
        2772,
        2773,
        2774,
        -1,
        2776,
        -1,
        2778,
        -1,
        2780,
        -1,
        -1,
        2783,
        2784,
        -1,
        2786,
        -1,
        2788,
        -1,
        2790,
        -1,
        2792,
        -1,
        -1,
        -1,
        2796,
        2797,
        2798,
        2799,
        -1,
        2801,
        -1,
        2803,
        2804,
        2805,
        -1,
        -1,
        -1,
        -1,
        2810,
        2811,
        -1,
        2813,
        -1,
        2815,
        -1,
        -1,
        -1,
        -1,
        2820,
        2821,
        2822,
        -1,
        2824,
        2825,
        2826,
        2827,
        -1,
        -1,
        -1,
        2831,
        -1,
        -1,
        -1,
        2835,
        2836,
        2837,
        -1,
        2839,
        2840,
        -1,
        -1,
        -1,
        -1,
        2845,
        -1,
        2847,
        -1,
        2849,
        -1,
        2851,
        -1,
        -1,
        2854,
        2855,
        2856,
        2857,
        2858,
        2859,
        -1,
        2861,
        2862,
        2863,
        -1,
        2865,
        2866,
        -1,
        2868,
        -1,
        -1,
        -1,
        2872,
        -1,
        2874,
        -1,
        2876,
        -1,
        -1,
        2879,
        -1,
        -1,
        -1,
        2883,
        2884,
        2885,
        2886,
        -1,
        2888,
        2889,
        -1,
        2891,
        -1,
        -1,
        -1,
        2895,
        -1,
        -1,
        2898,
        -1,
        -1,
        -1,
        -1,
        2903,
        -1,
        2905,
        -1,
        -1,
        2908,
        2909,
        2910,
        2911,
        -1,
        -1,
        -1,
        2915,
        2916,
        -1,
        -1,
        2919,
        -1,
        -1,
        2922,
        -1,
        2924,
        2925,
        -1,
        2927,
        2928,
        2929,
        -1,
        -1,
        -1,
        -1,
        2934,
        -1,
        -1,
        2937,
        -1,
        2939,
        2940,
        -1,
        2942,
        2943,
        2944,
        2945,
        2946,
        2947,
        2948,
        2949,
        -1,
        -1,
        -1,
        -1,
        -1,
        -1,
        -1,
        2957,
        -1,
        2959,
        -1,
        -1,
        2962,
        2963,
        2964,
        2965,
        2966,
        -1,
        2968,
        -1,
        2970,
        2971,
        -1,
        -1,
        2974,
        2975,
        2976,
        2977,
        -1,
        2979,
        -1,
        2981,
        -1,
        2983,
        -1,
        -1,
        2986,
        -1,
        -1,
        -1,
        -1,
        -1,
        2992,
        2993,
        2994,
        -1,
        -1,
        2997,
        2998,
        2999,
        -1,
        3001,
        -1,
        -1,
        -1,
        -1,
        3006,
        3007,
        3008,
        -1,
        3010,
        -1,
        3012,
        -1,
        -1,
        -1,
        -1,
        -1,
        3018,
        3019,
        -1,
        3021,
        -1,
        3023,
        3024,
        3025,
        -1,
        3027,
        -1,
        -1,
        3030,
        -1,
        3032,
        -1,
        3034,
        -1,
        -1,
        3037,
        -1,
        3039,
        -1,
        3041,
        -1,
        -1,
        -1,
        3045,
        3046,
        3047,
        3048,
        3049,
        3050,
        3051,
        -1,
        -1,
        -1,
        -1,
        3056,
        3057,
        -1,
        -1,
        -1,
        -1,
        3062,
        3063,
        -1,
        3065,
        -1,
        3067,
        -1,
        3069,
        -1,
        3071,
        -1,
        -1,
        -1,
        3075,
        3076,
        3077,
        -1,
        3079,
        3080,
        3081,
        3082,
        3083,
        -1,
        3085,
        -1,
        3087,
        -1,
        3089,
        -1,
        3091,
        -1,
        3093,
        3094,
        -1,
        3096,
        -1,
        -1,
        -1,
        -1,
        -1,
        3102,
        -1,
        -1,
        3105,
        -1,
        3107,
        3108,
        3109,
        3110,
        -1,
        -1,
        -1,
        3114,
        -1,
        -1,
        3117,
        -1,
        3119,
        -1,
        -1,
        -1,
        3123,
        3124,
        3125,
        -1,
        -1,
        3128,
        -1,
        3130,
        -1,
        3132,
        -1,
        3134,
        -1,
        -1,
        3137,
        3138,
        3139,
        3140,
        -1,
        3142,
        -1,
        -1,
        -1,
        -1,
        3147,
        -1,
        3149,
        -1,
        3151,
        3152,
        -1,
        -1,
        -1,
        3156,
        3157,
        3158,
        3159,
        3160,
        -1,
        3162,
        3163,
        -1,
        3165,
        -1,
        -1,
        3168,
        3169,
        3170,
        3171,
        3172,
        3173,
        3174,
        3175,
        3176,
        3177,
        3178,
        3179,
        -1,
        -1,
        -1,
        -1,
        -1,
        3185,
        3186,
        3187,
        3188,
        3189,
        -1,
        -1,
        -1,
        -1,
        3194,
        -1,
        -1,
        3197,
        3198,
        3199,
        -1,
        -1,
        -1,
        3203,
        -1,
        -1,
        -1,
        -1,
        -1,
        3209,
        3210,
        3211,
        3212,
        -1,
        3214,
        -1,
        3216,
        -1,
        -1,
        3219,
        3220,
        3221,
        3222,
        3223,
        3224,
        -1,
        -1,
        3227,
        -1,
        -1,
        -1,
        -1,
        -1,
        3233,
        -1,
        3235,
        3236,
        -1,
        3238,
        -1,
        -1,
        3241,
        -1,
        3243,
        -1,
        -1,
        3246,
        3247,
        3248,
        -1,
        3250,
        3251,
        -1,
        3253,
        -1,
        -1,
        -1,
        3257,
        3258,
        3259,
        -1,
        3261,
        -1,
        -1,
        -1,
        -1,
        3266,
        3267,
        3268,
        -1,
        -1,
        -1,
        -1,
        -1,
        3274,
        3275,
        3276,
        3277,
        3278,
        3279,
        -1,
        3281,
        -1,
        3283,
        -1,
        -1,
        -1,
        -1,
        3288,
        3289,
        -1,
        -1,
        -1,
        3293,
        3294,
        3295,
        3296,
        3297,
        -1,
        3299,
        3300,
        -1,
        3302,
        -1,
        -1,
        -1,
        -1,
        3307,
        -1,
        3309,
        -1,
        3311,
        -1,
        -1,
        3314,
        3315,
        -1,
        3317,
        3318,
        3319,
        -1,
        -1,
        -1,
        -1,
        3324,
        3325,
        -1,
        3327,
        -1,
        -1,
        -1,
        3331,
        -1,
        3333,
        -1,
        -1,
        3336,
        3337,
        3338,
        -1,
        -1,
        3341,
        -1,
        3343,
        3344,
        3345,
        3346,
        -1,
        3348,
        -1,
        -1,
        3351,
        3352,
        -1,
        -1,
        -1,
        -1,
        -1,
        -1,
        3359,
        3360,
        -1,
        3362,
        -1,
        -1,
        3365,
        3366,
        3367,
        -1,
        3369,
        -1,
        -1,
        -1,
        -1,
        3374,
        3375,
        3376,
        3377,
        3378,
        3379,
        3380,
        -1,
        -1,
        -1,
        -1,
        3385,
        -1,
        3387,
        -1,
        3389,
        -1,
        -1,
        3392,
        3393,
        3394,
        3395,
        -1,
        3397,
        -1,
        3399,
        -1,
        3401,
        -1,
        -1,
        -1,
        3405,
        -1,
        3407,
        3408,
        -1,
        -1,
        -1,
        3412,
        3413,
        -1,
        3415,
        -1,
        3417,
        -1,
        -1,
        3420,
        3421,
        3422,
        3423,
        3424,
        3425,
        -1,
        -1,
        -1,
        3429,
        -1,
        -1,
        -1,
        -1,
        3434,
        -1,
        3436,
        -1,
        3438,
        -1,
        -1,
        3441,
        3442,
        3443,
        3444,
        3445,
        3446,
        -1,
        -1,
        3449,
        3450,
        3451,
        -1,
        -1,
        -1,
        -1,
        3456,
        3457,
        -1,
        3459,
        -1,
        3461,
        3462,
        -1,
        3464,
        -1,
        -1,
        -1,
        3468,
        3469,
        3470,
        3471,
        -1,
        3473,
        -1,
        -1,
        -1,
        -1,
        3478,
        -1,
        -1,
        -1,
        3482,
        -1,
        3484,
        3485,
        3486,
        3487,
        3488,
        3489,
        3490,
        -1,
        -1,
        -1,
        -1,
        -1,
        -1,
        -1,
        3498,
        3499,
        -1,
        3501,
        -1,
        3503,
        -1,
        3505,
        3506,
        -1,
        -1,
        3509,
        -1,
        -1,
        3512,
        -1,
        3514,
        -1,
        3516,
        -1,
        3518,
        -1,
        -1,
        3521,
        -1,
        3523,
        -1,
        3525,
        -1,
        3527,
        3528,
        3529,
        -1,
        -1,
        -1,
        -1,
        -1,
        -1,
        3536,
        3537,
        3538,
        3539,
        3540,
        3541,
        -1,
        3543,
        -1,
        3545,
        -1,
        3547,
        -1,
        3549,
        -1,
        3551,
        -1,
        -1,
        3554,
        -1,
        -1,
        -1,
        3558,
        -1,
        3560,
        -1,
        3562,
        -1,
        3564,
        -1,
        3566,
        -1,
        3568,
        -1,
        -1,
        3571,
        -1,
        3573,
        -1,
        3575,
        -1,
        3577,
        -1,
        -1,
        3580,
        3581,
        3582,
        -1,
        -1,
        -1,
        3586,
        3587,
        3588,
        3589,
        -1,
        3591,
        -1,
        -1,
        -1,
        3595,
        -1,
        -1,
        -1,
        3599,
        3600,
        3601,
        -1,
        3603,
        3604,
        3605,
        3606,
        -1,
        3608,
        3609,
        3610,
        -1,
        -1,
        3613,
        -1,
        3615,
        -1,
        3617,
        -1,
        3619,
        -1,
        -1,
        -1,
        -1,
        3624,
        3625,
        -1,
        3627,
        -1,
        -1,
        3630,
        -1,
        3632,
        3633,
        -1,
        3635,
        3636,
        3637,
        3638,
        3639,
        -1,
        3641,
        -1,
        -1,
        3644,
        -1,
        3646,
        -1,
        -1,
        3649,
        -1,
        3651,
        -1,
        3653,
        -1,
        -1,
        3656,
        -1,
        -1,
        -1,
        3660,
        -1,
        3662,
        -1,
        3664,
        -1,
        -1,
        3667,
        3668,
        3669,
        -1,
        3671,
        -1,
        3673,
        3674,
        -1,
        3676,
        -1,
        -1,
        -1,
        -1,
        3681,
        -1,
        3683,
        3684,
        -1,
        3686,
        -1,
        -1,
        -1,
        3690,
        3691,
        -1,
        3693,
        -1,
        3695,
        3696,
        -1,
        -1,
        -1,
        3700,
        3701,
        3702,
        -1,
        -1,
        3705,
        -1,
        3707,
        -1,
        -1,
        3710,
        -1,
        3712,
        -1,
        -1,
        3715,
        -1,
        3717,
        3718,
        -1,
        3720,
        3721,
        -1,
        3723,
        3724,
        3725,
        3726,
        -1,
        -1,
        -1,
        3730,
        -1,
        3732,
        3733,
        -1,
        -1,
        -1,
        3737,
        -1,
        3739,
        -1,
        -1,
        3742,
        -1,
        3744,
        -1,
        3746,
        3747,
        -1,
        3749,
        -1,
        -1,
        -1,
        3753,
        3754,
        3755,
        3756,
        3757,
        3758,
        -1,
        -1,
        -1,
        -1,
        -1,
        3764,
        3765,
        -1,
        3767,
        3768,
        -1,
        -1,
        -1,
        -1,
        3773,
        3774,
        -1,
        -1,
        3777,
        3778,
        3779,
        3780,
        -1,
        3782,
        -1,
        3784,
        -1,
        -1,
        -1,
        3788,
        -1,
        3790,
        -1,
        -1,
        3793,
        3794,
        -1,
        3796,
        -1,
        -1,
        3799,
        -1,
        3801,
        3802,
        -1,
        3804,
        -1,
        -1,
        -1,
        3808,
        -1,
        3810,
        3811,
        3812,
        -1,
        -1,
        -1,
        3816,
        3817,
        -1,
        3819,
        -1,
        -1,
        3822,
        3823,
        3824,
        -1,
        3826,
        3827,
        -1,
        3829,
        -1,
        3831,
        -1,
        -1,
        3834,
        3835,
        -1,
        -1,
        -1,
        -1,
        3840,
        3841,
        3842,
        3843,
        3844,
        -1,
        -1,
        3847,
        -1,
        3849,
        -1,
        -1,
        3852,
        -1,
        3854,
        -1,
        3856,
        3857,
        -1,
        3859,
        -1,
        -1,
        -1,
        -1,
        3864,
        3865,
        -1,
        -1,
        -1,
        3869,
        3870,
        3871,
        -1,
        3873,
        3874,
        3875,
        -1,
        3877,
        -1,
        3879,
        -1,
        -1,
        -1,
        3883,
        3884,
        -1,
        3886,
        3887,
        3888,
        3889,
        -1,
        -1,
        -1,
        3893,
        -1,
        3895,
        -1,
        3897,
        3898,
        3899,
        3900,
        -1,
        3902,
        -1,
        -1,
        3905,
        -1,
        3907,
        3908,
        -1,
        3910,
        -1,
        3912,
        -1,
        3914,
        -1,
        -1,
        3917,
        -1,
        3919,
        -1,
        -1,
        3922,
        -1,
        -1,
        -1,
        -1,
        3927,
        3928,
        3929,
        -1,
        -1,
        -1,
        3933,
        -1,
        3935,
        -1,
        -1,
        3938,
        3939,
        3940,
        3941,
        3942,
        -1,
        3944,
        3945,
        -1,
        3947,
        -1,
        -1,
        -1,
        -1,
        3952,
        3953,
        3954,
        3955,
        -1,
        3957,
        3958,
        3959,
        3960,
        3961,
        3962,
        -1,
        -1,
        3965,
        3966,
        -1,
        -1,
        -1,
        -1,
        -1,
        3972,
        -1,
        3974,
        3975,
        -1,
        3977,
        -1,
        3979,
        -1,
        -1,
        -1,
        3983,
        3984,
        3985,
        -1,
        3987,
        3988,
        3989,
        -1,
        3991,
        3992,
        -1,
        -1,
        3995,
        3996,
        3997,
        -1,
        3999,
        4000,
        -1,
        -1,
        -1,
        -1,
        -1,
        4006,
        4007,
        -1,
        4009,
        4010,
        4011,
        -1,
        4013,
        -1,
        -1,
        -1,
        -1,
        4018,
        4019,
        -1,
        -1,
        -1,
        4023,
        -1,
        4025,
        4026,
        4027,
        4028,
        -1,
        4030,
        4031,
        -1,
        4033,
        -1,
        -1,
        4036,
        4037,
        -1,
        -1,
        4040,
        -1,
        -1,
        -1,
        -1,
        -1,
        4046,
        4047,
        -1,
        4049,
        -1,
        4051,
        -1,
        -1,
        -1,
        4055,
        4056,
        -1,
        4058,
        4059,
        -1,
        4061,
        4062,
        -1,
        -1,
        -1,
        -1,
        4067,
        -1,
        -1,
        4070,
        4071,
        4072,
        4073,
        4074,
        -1,
        4076,
        -1,
        -1,
        -1,
        4080,
        -1,
        4082,
        -1,
        4084,
        -1,
        -1,
        4087,
        -1,
        4089,
        4090,
        4091,
        4092,
        -1,
        4094,
        -1,
        -1,
        -1,
        4098,
        -1,
        4100,
        -1,
        4102,
        -1,
        -1,
        -1,
        4106,
        -1,
        4108,
        -1,
        4110,
        -1,
        -1,
        4113,
        4114,
        4115,
        -1,
        -1,
        4118,
        4119,
        4120,
        4121,
        4122,
        -1,
        4124,
        -1,
        -1,
        -1,
        -1,
        -1,
        4130,
        -1,
        4132,
        -1,
        -1,
        4135,
        -1,
        4137,
        4138,
        4139,
        4140,
        -1,
        -1,
        4143,
        -1,
        -1,
        -1,
        -1,
        -1,
        -1,
        4150,
        4151,
        4152,
        -1,
        -1,
        4155,
        4156,
        -1,
        -1,
        -1,
        4160,
        4161,
        4162,
        -1,
        4164,
        4165,
        4166,
        -1,
        4168,
        -1,
        4170,
        -1,
        4172,
        -1,
        4174,
        -1,
        4176,
        -1,
        -1,
        4179,
        4180,
        -1,
        4182,
        4183,
        -1,
        4185,
        -1,
        -1,
        -1,
        4189,
        4190,
        4191,
        -1,
        -1,
        4194,
        -1,
        -1,
        -1,
        4198,
        4199,
        -1,
        4201,
        -1,
        4203,
        4204,
        4205,
        -1,
        -1,
        -1,
        4209,
        -1,
        -1,
        -1,
        4213,
        -1,
        -1,
        4216,
        -1,
        4218,
        4219,
        4220,
        -1,
        -1,
        -1,
        4224,
        -1,
        4226,
        4227,
        -1,
        4229,
        -1,
        4231,
        4232,
        -1,
        4234,
        -1,
        -1,
        -1,
        -1,
        4239,
        4240,
        4241,
        4242,
        -1,
        4244,
        -1,
        4246,
        4247,
        -1,
        4249,
        4250,
        4251,
        4252,
        4253,
        -1,
        4255,
        -1,
        -1,
        -1,
        -1,
        4260,
        4261,
        4262,
        -1,
        4264,
        4265,
        -1,
        4267,
        4268,
        -1,
        -1,
        -1,
        -1,
        -1,
        -1,
        4275,
        -1,
        -1,
        4278,
        -1,
        4280,
        4281,
        -1,
        4283,
        4284,
        4285,
        -1,
        4287,
        -1,
        -1,
        -1,
        4291,
        -1,
        -1,
        4294,
        -1,
        -1,
        4297,
        -1,
        4299,
        -1,
        -1,
        4302,
        4303,
        4304,
        4305,
        4306,
        4307,
        -1,
        4309,
        -1,
        4311,
        -1,
        -1,
        4314,
        4315,
        4316,
        4317,
        4318,
        4319,
        4320,
        4321,
        -1,
        4323,
        -1,
        -1,
        -1,
        -1,
        4328,
        4329,
        4330,
        -1,
        4332,
        4333,
        4334,
        4335,
        -1,
        -1,
        4338,
        -1,
        4340,
        -1,
        4342,
        -1,
        -1,
        -1,
        -1,
        4347,
        -1,
        -1,
        -1,
        4351,
        4352,
        -1,
        4354,
        -1,
        4356,
        -1,
        -1,
        -1,
        4360,
        -1,
        4362,
        -1,
        -1,
        -1,
        4366,
        4367,
        4368,
        -1,
        -1,
        -1,
        4372,
        -1,
        4374,
        4375,
        4376,
        -1,
        4378,
        4379,
        -1,
        -1,
        -1,
        4383,
        -1,
        4385,
        4386,
        -1,
        4388,
        -1,
        -1,
        4391,
        4392,
        4393,
        4394,
        4395,
        4396,
        -1,
        4398,
        -1,
        -1,
        -1,
        -1,
        -1,
        -1,
        -1,
        4406,
        4407,
        -1,
        4409,
        4410,
        -1,
        4412,
        4413,
        -1,
        4415,
        4416,
        -1,
        -1,
        -1,
        4420,
        4421,
        4422,
        -1,
        4424,
        -1,
        -1,
        -1,
        4428,
        -1,
        4430,
        4431,
        4432,
        -1,
        -1,
        -1,
        4436,
        -1,
        4438,
        -1,
        -1,
        -1,
        4442,
        -1,
        4444,
        -1,
        4446,
        4447,
        4448,
        -1,
        -1,
        -1,
        -1,
        4453,
        4454,
        4455,
        -1,
        4457,
        -1,
        4459,
        -1,
        -1,
        -1,
        4463,
        4464,
        -1,
        4466,
        4467,
        4468,
        4469,
        -1,
        4471,
        4472,
        -1,
        4474,
        4475,
        4476,
        -1,
        -1,
        -1,
        4480,
        -1,
        4482,
        -1,
        -1,
        4485,
        -1,
        -1,
        4488,
        4489,
        -1,
        -1,
        -1,
        4493,
        -1,
        4495,
        4496,
        4497,
        -1,
        -1,
        -1,
        -1,
        4502,
        4503,
        -1,
        4505,
        -1,
        4507,
        4508,
        -1,
        4510,
        4511,
        4512,
        -1,
        4514,
        4515,
        -1,
        -1,
        -1,
        4519,
        4520,
        4521,
        4522,
        -1,
        -1,
        -1,
        -1,
        -1,
        4528,
        4529,
        -1,
        -1,
        -1,
        -1,
        4534,
        -1,
        4536,
        -1,
        4538,
        -1,
        4540,
        4541,
        4542,
        4543,
        4544,
        -1,
        4546,
        -1,
        -1,
        -1,
        4550,
        -1,
        4552,
        4553,
        4554,
        -1,
        -1,
        4557,
        -1,
        -1,
        4560,
        4561,
        -1,
        -1,
        -1,
        4565,
        -1,
        4567,
        -1,
        4569,
        4570,
        -1,
        4572,
        -1,
        -1,
        -1,
        -1,
        4577,
        4578,
        4579,
        4580,
        -1,
        4582,
        -1,
        -1,
        -1,
        4586,
        4587,
        4588,
        4589,
        -1,
        -1,
        -1,
        -1,
        4594,
        4595,
        -1,
        -1,
        -1,
        4599,
        4600,
        4601,
        4602,
        4603,
        -1,
        -1,
        -1,
        -1,
        4608,
        -1,
        4610,
        4611,
        4612,
        4613,
        -1,
        -1,
        -1,
        4617,
        -1,
        -1,
        -1,
        -1,
        -1,
        4623,
        4624,
        4625,
        4626,
        4627,
        4628,
        4629,
        -1,
        4631,
        -1,
        4633,
        -1,
        -1,
        4636,
        -1,
        4638,
        4639,
        4640,
        -1,
        4642,
        -1,
        4644,
        4645,
        -1,
        -1,
        -1,
        4649,
        4650,
        -1,
        -1,
        -1,
        -1,
        4655,
        4656,
        4657,
        4658,
        -1,
        -1,
        -1,
        -1,
        -1,
        4664,
        4665,
        4666,
        -1,
        -1,
        -1,
        4670,
        -1,
        4672,
        -1,
        4674,
        -1,
        -1,
        -1,
        4678,
        4679,
        -1,
        4681,
        -1,
        4683,
        4684,
        -1,
        4686,
        -1,
        -1,
        -1,
        -1,
        4691,
        4692,
        4693,
        4694,
        4695,
        4696,
        -1,
        -1,
        -1,
        -1,
        4701,
        4702,
        4703,
        -1,
        4705,
        -1,
        -1,
        -1,
        4709,
        -1,
        4711,
        -1,
        -1,
        4714,
        4715,
        4716,
        -1,
        4718,
        -1,
        4720,
        4721,
        4722,
        4723,
        4724,
        4725,
        -1,
        4727,
        -1,
        4729,
        -1,
        4731,
        -1,
        4733,
        -1,
        -1,
        -1,
        -1,
        4738,
        -1,
        4740,
        -1,
        -1,
        -1,
        -1,
        4745,
        4746,
        4747,
        4748,
        -1,
        -1,
        -1,
        -1,
        4753,
        -1,
        4755,
        -1,
        4757,
        4758,
        -1,
        4760,
        -1,
        -1,
        -1,
        4764,
        4765,
        4766,
        -1,
        4768,
        4769,
        -1,
        -1,
        4772,
        -1,
        4774,
        -1,
        -1,
        4777,
        -1,
        4779,
        -1,
        4781,
        4782,
        4783,
        4784,
        4785,
        4786,
        4787,
        4788,
        -1,
        4790,
        -1,
        -1,
        4793,
        -1,
        4795,
        -1,
        -1,
        4798,
        4799,
        -1,
        -1,
        -1,
        4803,
        -1,
        -1,
        -1,
        4807,
        -1,
        4809,
        4810,
        4811,
        -1,
        4813,
        -1,
        4815,
        -1,
        -1,
        -1,
        4819,
        -1,
        -1,
        4822,
        -1,
        4824,
        -1,
        4826,
        -1,
        4828,
        -1,
        4830,
        -1,
        -1,
        4833,
        4834,
        -1,
        4836,
        -1,
        -1,
        4839,
        -1,
        4841,
        4842,
        -1,
        4844,
        -1,
        4846,
        -1,
        -1,
        -1,
        4850,
        4851,
        4852,
        -1,
        -1,
        -1,
        4856,
        4857,
        4858,
        4859,
        4860,
        4861,
        4862,
        4863,
        -1,
        -1,
        4866,
        -1,
        4868,
        -1,
        4870,
        4871,
        -1,
        -1,
        -1,
        -1,
        4876,
        -1,
        -1,
        4879,
        -1,
        4881,
        -1,
        4883,
        4884,
        4885,
        -1,
        4887,
        -1,
        -1,
        4890,
        -1,
        4892,
        -1,
        4894,
        -1,
        -1,
        -1,
        -1,
        4899,
        4900,
        -1,
        4902,
        -1,
        -1,
        4905,
        4906,
        4907,
        -1,
        4909,
        -1,
        4911,
        4912,
        -1,
        4914,
        -1,
        4916,
        -1,
        -1,
        -1,
        4920,
        4921,
        -1,
        -1,
        4924,
        4925,
        4926,
        -1,
        -1,
        4929,
        4930,
        4931,
        -1,
        -1,
        4934,
        -1,
        -1,
        4937,
        4938,
        -1,
        -1,
        -1,
        4942,
        4943,
        4944,
        4945,
        -1,
        -1,
        -1,
        4949,
        4950,
        -1,
        -1,
        -1,
        4954,
        4955,
        4956,
        -1,
        -1,
        -1,
        -1,
        -1,
        -1,
        4963,
        4964,
        4965,
        4966,
        -1,
        4968,
        4969,
        -1,
        4971,
        -1,
        -1,
        4974,
        -1,
        4976,
        -1,
        -1,
        -1,
        -1,
        4981,
        4982,
        -1,
        4984,
        4985,
        4986,
        4987,
        4988,
        4989,
        -1,
        4991,
        -1,
        -1,
        -1,
        4995,
        -1,
        -1,
        -1,
        4999,
        5000,
        -1,
        5002,
        5003,
        5004,
        -1,
        5006,
        -1,
        5008,
        -1,
        5010,
        -1,
        5012,
        -1,
        -1,
        -1,
        -1,
        5017,
        5018,
        -1,
        -1,
        -1,
        5022,
        5023,
        -1,
        -1,
        5026,
        5027,
        -1,
        5029,
        -1,
        -1,
        -1,
        -1,
        5034,
        5035,
        5036,
        5037,
        5038,
        5039,
        5040,
        5041,
        5042,
        -1,
        -1,
        5045,
        5046,
        -1,
        -1,
        5049,
        5050,
        -1,
        5052,
        5053,
        -1,
        -1,
        -1,
        5057,
        -1,
        5059,
        5060,
        -1,
        5062,
        -1,
        5064,
        5065,
        5066,
        -1,
        -1,
        -1,
        5070,
        -1,
        5072,
        -1,
        -1,
        5075,
        -1,
        -1,
        5078,
        5079,
        5080,
        5081,
        -1,
        5083,
        5084,
        -1,
        5086,
        5087,
        -1,
        5089,
        -1,
        5091,
        -1,
        -1,
        -1,
        -1,
        -1,
        -1,
        5098,
        -1,
        5100,
        -1,
        5102,
        -1,
        5104,
        -1,
        -1,
        5107,
        5108,
        -1,
        5110,
        -1,
        5112,
        -1,
        -1,
        -1,
        5116,
        -1,
        5118,
        5119,
        5120,
        5121,
        5122,
        -1,
        -1,
        -1,
        5126,
        5127,
        -1,
        -1,
        5130,
        5131,
        5132,
        -1,
        5134,
        5135,
        -1,
        5137,
        -1,
        -1,
        -1,
        5141,
        -1,
        -1,
        5144,
        -1,
        5146,
        -1,
        5148,
        -1,
        -1,
        -1,
        -1,
        -1,
        5154,
        5155,
        5156,
        5157,
        5158,
        -1,
        -1,
        -1,
        -1,
        5163,
        5164,
        5165,
        -1,
        -1,
        -1,
        5169,
        -1,
        5171,
        -1,
        5173,
        -1,
        -1,
        5176,
        5177,
        -1,
        -1,
        5180,
        -1,
        5182,
        -1,
        5184,
        -1,
        5186,
        5187,
        5188,
        -1,
        -1,
        -1,
        -1,
        5193,
        5194,
        5195,
        5196,
        5197,
        5198,
        5199,
        -1,
        -1,
        5202,
        5203,
        -1,
        -1,
        -1,
        5207,
        -1,
        -1,
        -1,
        5211,
        5212,
        -1,
        -1,
        -1,
        5216,
        5217,
        5218,
        -1,
        -1,
        5221,
        5222,
        -1,
        5224,
        5225,
        -1,
        5227,
        -1,
        -1,
        -1,
        5231,
        -1,
        5233,
        -1,
        -1,
        -1,
        5237,
        5238,
        5239,
        -1,
        5241,
        5242,
        5243,
        5244,
        5245,
        5246,
        5247,
        5248,
        5249,
        5250,
        5251,
        -1,
        5253,
        -1,
        -1,
        5256,
        -1,
        -1,
        5259,
        5260,
        -1,
        -1,
        5263,
        -1,
        -1,
        -1,
        -1,
        5268,
        5269,
        5270,
        -1,
        5272,
        5273,
        5274,
        -1,
        -1,
        5277,
        -1,
        -1,
        5280,
        5281,
        -1,
        -1,
        -1,
        5285,
        5286,
        5287,
        -1,
        -1,
        -1,
        5291,
        -1,
        5293,
        -1,
        -1,
        5296,
        5297,
        -1,
        -1,
        -1,
        5301,
        5302,
        5303,
        -1,
        -1,
        5306,
        -1,
        5308,
        -1,
        -1,
        5311,
        5312,
        5313,
        5314,
        5315,
        5316,
        -1,
        -1,
        -1,
        -1,
        -1,
        -1,
        5323,
        5324,
        -1,
        5326,
        -1,
        5328,
        -1,
        5330,
        -1,
        -1,
        5333,
        -1,
        5335,
        -1,
        5337,
        5338,
        -1,
        -1,
        -1,
        -1,
        5343,
        5344,
        5345,
        5346,
        5347,
        -1,
        5349,
        5350,
        5351,
        -1,
        -1,
        -1,
        -1,
        -1,
        -1,
        -1,
        5359,
        -1,
        5361,
        5362,
        -1,
        -1,
        -1,
        -1,
        5367,
        5368,
        5369,
        -1,
        -1,
        -1,
        5373,
        -1,
        5375,
        5376,
        -1,
        5378,
        -1,
        5380,
        5381,
        -1,
        -1,
        5384,
        -1,
        5386,
        -1,
        -1,
        5389,
        5390,
        -1,
        -1,
        5393,
        -1,
        5395,
        -1,
        -1,
        5398,
        -1,
        5400,
        5401,
        5402,
        -1,
        -1,
        5405,
        5406,
        5407,
        5408,
        5409,
        -1,
        5411,
        -1,
        -1,
        5414,
        5415,
        -1,
        5417,
        -1,
        -1,
        -1,
        5421,
        5422,
        -1,
        5424,
        -1,
        -1,
        -1,
        5428,
        -1,
        5430,
        -1,
        5432,
        -1,
        5434,
        5435,
        5436,
        -1,
        5438,
        -1,
        5440,
        -1,
        -1,
        -1,
        5444,
        -1,
        5446,
        -1,
        5448,
        -1,
        -1,
        5451,
        -1,
        5453,
        -1,
        5455,
        5456,
        -1,
        5458,
        -1,
        5460,
        5461,
        5462,
        -1,
        5464,
        -1,
        -1,
        -1,
        5468,
        -1,
        5470,
        -1,
        -1,
        5473,
        5474,
        -1,
        5476,
        -1,
        -1,
        -1,
        5480,
        5481,
        -1,
        -1,
        5484,
        5485,
        -1,
        5487,
        -1,
        -1,
        -1,
        5491,
        -1,
        5493,
        5494,
        -1,
        5496,
        5497,
        -1,
        5499,
        -1,
        5501,
        5502,
        5503,
        -1,
        -1,
        -1,
        -1,
        5508,
        -1,
        5510,
        5511,
        5512,
        -1,
        -1,
        -1,
        -1,
        -1,
        5518,
        5519,
        5520,
        5521,
        5522,
        -1,
        5524,
        -1,
        5526,
        -1,
        -1,
        -1,
        5530,
        5531,
        5532,
        5533,
        5534,
        5535,
        5536,
        -1,
        -1,
        -1,
        5540,
        -1,
        5542,
        -1,
        5544,
        -1,
        -1,
        5547,
        -1,
        -1,
        5550,
        5551,
        5552,
        -1,
        -1,
        -1,
        5556,
        5557,
        5558,
        5559,
        -1,
        5561,
        5562,
        -1,
        5564,
        5565,
        -1,
        5567,
        -1,
        -1,
        5570,
        5571,
        -1,
        -1,
        -1,
        5575,
        -1,
        5577,
        5578,
        -1,
        5580,
        -1,
        -1,
        5583,
        5584,
        -1,
        5586,
        -1,
        -1,
        -1,
        -1,
        5591,
        5592,
        5593,
        5594,
        -1,
        -1,
        -1,
        5598,
        -1,
        5600,
        -1,
        -1,
        5603,
        5604,
        5605,
        -1,
        -1,
        5608,
        -1,
        5610,
        5611,
        -1,
        -1,
        -1,
        -1,
        -1,
        5617,
        5618,
        5619,
        -1,
        -1,
        5622,
        -1,
        5624,
        5625,
        -1,
        -1,
        -1,
        5629,
        -1,
        -1,
        -1,
        5633,
        -1,
        5635,
        -1,
        5637,
        5638,
        5639,
        5640,
        5641,
        5642,
        -1,
        5644,
        -1,
        5646,
        5647,
        5648,
        5649,
        5650,
        -1,
        5652,
        -1,
        -1,
        5655,
        -1,
        5657,
        -1,
        -1,
        -1,
        5661,
        -1,
        5663,
        -1,
        -1,
        5666,
        5667,
        -1,
        5669,
        -1,
        -1,
        -1,
        -1,
        -1,
        -1,
        5676,
        -1,
        5678,
        -1,
        5680,
        -1,
        -1,
        -1,
        5684,
        5685,
        5686,
        -1,
        5688,
        5689,
        5690,
        5691,
        5692,
        -1,
        -1,
        5695,
        -1,
        5697,
        5698,
        -1,
        5700,
        -1,
        5702,
        -1,
        5704,
        5705,
        -1,
        5707,
        -1,
        5709,
        -1,
        -1,
        -1,
        5713,
        5714,
        -1,
        -1,
        -1,
        5718,
        5719,
        5720,
        5721,
        5722,
        -1,
        -1,
        -1,
        -1,
        5727,
        -1,
        -1,
        -1,
        -1,
        5732,
        5733,
        5734,
        5735,
        5736,
        5737,
        -1,
        5739,
        5740,
        5741,
        -1,
        5743,
        -1,
        -1,
        -1,
        5747,
        5748,
        -1,
        5750,
        -1,
        -1,
        5753,
        -1,
        5755,
        -1,
        5757,
        -1,
        5759,
        -1,
        -1,
        -1,
        5763,
        -1,
        -1,
        5766,
        5767,
        5768,
        -1,
        -1,
        5771,
        -1,
        5773,
        -1,
        -1,
        -1,
        5777,
        5778,
        5779,
        5780,
        -1,
        5782,
        5783,
        -1,
        5785,
        -1,
        -1,
        -1,
        5789,
        -1,
        -1,
        5792,
        -1,
        5794,
        -1,
        -1,
        -1,
        5798,
        -1,
        5800,
        -1,
        5802,
        5803,
        5804,
        5805,
        -1,
        -1,
        -1,
        5809,
        5810,
        -1,
        -1,
        -1,
        5814,
        -1,
        5816,
        -1,
        5818,
        -1,
        5820,
        -1,
        5822,
        -1,
        5824,
        -1,
        5826,
        -1,
        -1,
        5829,
        -1,
        5831,
        5832,
        -1,
        5834,
        5835,
        5836,
        -1,
        -1,
        -1,
        -1,
        -1,
        5842,
        5843,
        -1,
        5845,
        5846,
        -1,
        -1,
        5849,
        -1,
        5851,
        5852,
        -1,
        5854,
        5855,
        5856,
        -1,
        -1,
        -1,
        -1,
        -1,
        5862,
        5863,
        -1,
        5865,
        5866,
        -1,
        -1,
        -1,
        5870,
        -1,
        5872,
        5873,
        -1,
        5875,
        -1,
        -1,
        -1,
        5879,
        5880,
        5881,
        5882,
        5883,
        5884,
        -1,
        -1,
        -1,
        5888,
        -1,
        5890,
        -1,
        -1,
        5893,
        -1,
        5895,
        -1,
        5897,
        -1,
        -1,
        -1,
        5901,
        5902,
        5903,
        5904,
        -1,
        5906,
        5907,
        -1,
        5909,
        5910,
        -1,
        -1,
        5913,
        -1,
        5915,
        5916,
        5917,
        -1,
        -1,
        -1,
        5921,
        -1,
        5923,
        5924,
        -1,
        -1,
        -1,
        -1,
        -1,
        5930,
        -1,
        5932,
        5933,
        -1,
        -1,
        5936,
        -1,
        5938,
        -1,
        5940,
        5941,
        5942,
        5943,
        5944,
        -1,
        -1,
        -1,
        -1,
        -1,
        5950,
        -1,
        -1,
        5953,
        5954,
        5955,
        5956,
        5957,
        5958,
        -1,
        5960,
        -1,
        5962,
        -1,
        -1,
        -1,
        5966,
        -1,
        5968,
        -1,
        -1,
        5971,
        -1,
        5973,
        -1,
        -1,
        5976,
        -1,
        5978,
        -1,
        5980,
        -1,
        5982,
        5983,
        -1,
        -1,
        -1,
        5987,
        5988,
        5989,
        5990,
        -1,
        5992,
        -1,
        5994,
        5995,
        5996,
        -1,
        5998,
        -1,
        -1,
        -1,
        -1,
        6003,
        -1,
        6005,
        6006,
        -1,
        6008,
        6009,
        -1,
        6011,
        6012,
        6013,
        6014,
        6015,
        6016,
        -1,
        6018,
        -1,
        6020,
        -1,
        6022,
        -1,
        -1,
        6025,
        -1,
        6027,
        -1,
        -1,
        -1,
        6031,
        -1,
        6033,
        6034,
        -1,
        -1,
        -1,
        6038,
        -1,
        6040,
        -1,
        6042,
        -1,
        -1,
        -1,
        -1,
        -1,
        6048,
        -1,
        6050,
        -1,
        -1,
        6053,
        6054,
        6055,
        6056,
        -1,
        6058,
        -1,
        6060,
        6061,
        6062,
        6063,
        -1,
        -1,
        -1,
        -1,
        -1,
        6069,
        6070,
        6071,
        6072,
        6073,
        -1,
        6075,
        -1,
        -1,
        6078,
        -1,
        6080,
        6081,
        -1,
        -1,
        -1,
        -1,
        6086,
        6087,
        -1,
        -1,
        6090,
        6091,
        6092,
        -1,
        6094,
        -1,
        6096,
        -1,
        -1,
        6099,
        -1,
        6101,
        -1,
        -1,
        6104,
        -1,
        6106,
        -1,
        -1,
        -1,
        6110,
        -1,
        6112,
        -1,
        6114,
        6115,
        -1,
        -1,
        -1,
        6119,
        6120,
        6121,
        6122,
        -1,
        6124,
        -1,
        -1,
        -1,
        6128,
        6129,
        6130,
        6131,
        -1,
        -1,
        -1,
        -1,
        -1,
        6137,
        6138,
        6139,
        6140,
        -1,
        6142,
        -1,
        -1,
        6145,
        -1,
        -1,
        6148,
        -1,
        6150,
        -1,
        6152,
        -1,
        -1,
        6155,
        6156,
        -1,
        -1,
        -1,
        6160,
        6161,
        6162,
        -1,
        6164,
        -1,
        -1,
        6167,
        6168,
        -1,
        6170,
        -1,
        6172,
        6173,
        -1,
        -1,
        -1,
        6177,
        6178,
        -1,
        -1,
        -1,
        6182,
        6183,
        6184,
        6185,
        -1,
        6187,
        -1,
        6189,
        -1,
        6191,
        -1,
        -1,
        6194,
        6195,
        6196,
        -1,
        6198,
        -1,
        -1,
        6201,
        6202,
        6203,
        -1,
        -1,
        -1,
        6207,
        -1,
        6209,
        -1,
        -1,
        6212,
        -1,
        6214,
        -1,
        -1,
        6217,
        -1,
        6219,
        -1,
        6221,
        6222,
        -1,
        -1,
        -1,
        6226,
        6227,
        6228,
        6229,
        6230,
        6231,
        6232,
        6233,
        -1,
        -1,
        -1,
        -1,
        -1,
        6239,
        -1,
        6241,
        6242,
        6243,
        6244,
        6245,
        6246,
        6247,
        6248,
        -1,
        6250,
        -1,
        6252,
        -1,
        6254,
        -1,
        6256,
        -1,
        6258,
        -1,
        -1,
        6261,
        -1,
        6263,
        -1,
        6265,
        6266,
        -1,
        6268,
        -1,
        6270,
        -1,
        -1,
        -1,
        -1,
        -1,
        6276,
        -1,
        6278,
        -1,
        6280,
        -1,
        -1,
        6283,
        6284,
        -1,
        6286,
        -1,
        6288,
        -1,
        -1,
        -1,
        -1,
        -1,
        6294,
        -1,
        -1,
        6297,
        6298,
        6299,
        6300,
        6301,
        -1,
        -1,
        -1,
        -1,
        6306,
        -1,
        6308,
        -1,
        6310,
        6311,
        6312,
        -1,
        -1,
        -1,
        6316,
        6317,
        -1,
        -1,
        -1,
        6321,
        6322,
        -1,
        6324,
        6325,
        -1,
        -1,
        6328,
        6329,
        -1,
        -1,
        -1,
        -1,
        6334,
        6335,
        6336,
        -1,
        -1,
        6339,
        6340,
        6341,
        6342,
        -1,
        6344,
        6345,
        -1,
        -1,
        -1,
        -1,
        6350,
        -1,
        -1,
        -1,
        6354,
        6355,
        6356,
        -1,
        -1,
        -1,
        6360,
        -1,
        -1,
        6363,
        6364,
        6365,
        6366,
        6367,
        6368,
        6369,
        -1,
        6371,
        -1,
        6373,
        6374,
        6375,
        -1,
        -1,
        -1,
        6379,
        6380,
        6381,
        6382,
        -1,
        6384,
        -1,
        -1,
        6387,
        -1,
        6389,
        -1,
        -1,
        6392,
        -1,
        6394,
        -1,
        -1,
        -1,
        6398,
        6399,
        6400,
        6401,
        6402,
        -1,
        6404,
        6405,
        -1,
        -1,
        -1,
        6409,
        6410,
        -1,
        6412,
        6413,
        6414,
        -1,
        -1,
        -1,
        6418,
        -1,
        6420,
        -1,
        -1,
        6423,
        6424,
        6425,
        6426,
        -1,
        6428,
        -1,
        -1,
        6431,
        6432,
        6433,
        -1,
        6435,
        -1,
        6437,
        -1,
        -1,
        6440,
        -1,
        6442,
        -1,
        -1,
        -1,
        -1,
        -1,
        -1,
        6449,
        6450,
        6451,
        -1,
        6453,
        -1,
        -1,
        6456,
        6457,
        -1,
        6459,
        -1,
        -1,
        6462,
        -1,
        6464,
        6465,
        6466,
        -1,
        6468,
        6469,
        -1,
        6471,
        -1,
        6473,
        -1,
        6475,
        -1,
        6477,
        6478,
        6479,
        6480,
        -1,
        -1,
        -1,
        -1,
        6485,
        6486,
        -1,
        -1,
        -1,
        -1,
        -1,
        6492,
        6493,
        -1,
        6495,
        -1,
        6497,
        -1,
        -1,
        6500,
        6501,
        6502,
        -1,
        6504,
        -1,
        6506,
        6507,
        -1,
        6509,
        -1,
        -1,
        6512,
        -1,
        6514,
        -1,
        6516,
        -1,
        -1,
        -1,
        -1,
        6521,
        -1,
        6523,
        6524,
        6525,
        6526,
        -1,
        6528,
        -1,
        6530,
        -1,
        6532,
        -1,
        -1,
        6535,
        -1,
        -1,
        -1,
        -1,
        6540,
        -1,
        6542,
        -1,
        6544,
        -1,
        6546,
        -1,
        6548,
        -1,
        -1,
        -1,
        6552,
        6553,
        6554,
        6555,
        6556,
        6557,
        6558,
        6559,
        6560,
        -1,
        -1,
        -1,
        6564,
        6565,
        -1,
        -1,
        6568,
        6569,
        6570,
        -1,
        -1,
        6573,
        6574,
        -1,
        -1,
        -1,
        -1,
        6579,
        -1,
        -1,
        6582,
        -1,
        6584,
        6585,
        6586,
        -1,
        6588,
        -1,
        -1,
        -1,
        -1,
        6593,
        6594,
        6595,
        6596,
        6597,
        -1,
        -1,
        -1,
        6601,
        -1,
        -1,
        -1,
        6605,
        6606,
        6607,
        6608,
        -1,
        6610,
        -1,
        -1,
        -1,
        -1,
        -1,
        6616,
        6617,
        6618,
        6619,
        -1,
        -1,
        -1,
        6623,
        -1,
        6625,
        -1,
        6627,
        -1,
        -1,
        6630,
        -1,
        6632,
        -1,
        6634,
        -1,
        6636,
        6637,
        -1,
        -1,
        -1,
        6641,
        6642,
        6643,
        -1,
        6645,
        -1,
        -1,
        6648,
        -1,
        6650,
        -1,
        6652,
        -1,
        6654,
        -1,
        -1,
        6657,
        6658,
        6659,
        6660,
        6661,
        6662,
        6663,
        6664,
        6665,
        6666,
        6667,
        -1,
        -1,
        -1,
        -1,
        6672,
        -1,
        -1,
        6675,
        -1,
        -1,
        6678,
        6679,
        6680,
        6681,
        -1,
        6683,
        -1,
        6685,
        -1,
        6687,
        6688,
        -1,
        6690,
        -1,
        -1,
        6693,
        -1,
        6695,
        -1,
        -1,
        6698,
        -1,
        -1,
        -1,
        6702,
        6703,
        6704,
        6705,
        6706,
        6707,
        6708,
        -1,
        -1,
        -1,
        6712,
        -1,
        6714,
        -1,
        -1,
        -1,
        -1,
        -1,
        -1,
        6721,
        -1,
        6723,
        6724,
        -1,
        6726,
        -1,
        -1,
        6729,
        6730,
        6731,
        -1,
        6733,
        -1,
        -1,
        6736,
        6737,
        6738,
        -1,
        -1,
        6741,
        -1,
        6743,
        6744,
        -1,
        6746,
        6747,
        6748,
        -1,
        -1,
        -1,
        6752,
        -1,
        6754,
        -1,
        -1,
        -1,
        6758,
        6759,
        -1,
        -1,
        -1,
        6763,
        -1,
        -1,
        6766,
        -1,
        6768,
        6769,
        6770,
        6771,
        6772,
        -1,
        -1,
        6775,
        -1,
        6777,
        -1,
        -1,
        6780,
        6781,
        6782,
        -1,
        6784,
        -1,
        -1,
        6787,
        6788,
        -1,
        6790,
        -1,
        -1,
        6793,
        -1,
        6795,
        6796,
        -1,
        -1,
        -1,
        6800,
        6801,
        -1,
        6803,
        6804,
        6805,
        -1,
        6807,
        6808,
        -1,
        -1,
        -1,
        6812,
        -1,
        -1,
        -1,
        -1,
        6817,
        -1,
        6819,
        -1,
        6821,
        6822,
        -1,
        6824,
        -1,
        -1,
        6827,
        6828,
        -1,
        -1,
        -1,
        -1,
        6833,
        6834,
        -1,
        6836,
        -1,
        -1,
        6839,
        6840,
        -1,
        -1,
        6843,
        6844,
        6845,
        -1,
        6847,
        6848,
        -1,
        6850,
        -1,
        -1,
        -1,
        6854,
        -1,
        -1,
        6857,
        -1,
        6859,
        6860,
        -1,
        6862,
        -1,
        6864,
        -1,
        6866,
        -1,
        -1,
        6869,
        6870,
        -1,
        6872,
        6873,
        -1,
        -1,
        -1,
        6877,
        -1,
        6879,
        -1,
        -1,
        -1,
        6883,
        6884,
        6885,
        6886,
        -1,
        6888,
        -1,
        6890,
        -1,
        -1,
        6893,
        6894,
        6895,
        6896,
        -1,
        6898,
        -1,
        -1,
        -1,
        -1,
        6903,
        6904,
        6905,
        6906,
        6907,
        6908,
        -1,
        6910,
        -1,
        -1,
        6913,
        -1,
        6915,
        6916,
        -1,
        -1,
        -1,
        6920,
        6921,
        -1,
        -1,
        -1,
        -1,
        6926,
        6927,
        -1,
        6929,
        -1,
        6931,
        -1,
        -1,
        -1,
        6935,
        -1,
        -1,
        6938,
        6939,
        6940,
        -1,
        -1,
        -1,
        6944,
        -1,
        6946,
        6947,
        6948,
        -1,
        6950,
        6951,
        6952,
        -1,
        6954,
        -1,
        -1,
        -1,
        6958,
        -1,
        -1,
        6961,
        -1,
        6963,
        6964,
        -1,
        6966,
        -1,
        6968,
        -1,
        6970,
        6971,
        6972,
        -1,
        -1,
        -1,
        -1,
        6977,
        -1,
        6979,
        -1,
        -1,
        6982,
        -1,
        6984,
        -1,
        6986,
        -1,
        6988,
        -1,
        6990,
        -1,
        -1,
        6993,
        6994,
        6995,
        6996,
        6997,
        -1,
        -1,
        -1,
        7001,
        7002,
        -1,
        7004,
        -1,
        -1,
        -1,
        7008,
        -1,
        7010,
        7011,
        -1,
        -1,
        7014,
        -1,
        7016,
        -1,
        -1,
        7019,
        7020,
        -1,
        -1,
        7023,
        7024,
        7025,
        7026,
        -1,
        7028,
        -1,
        -1,
        7031,
        -1,
        7033,
        -1,
        7035,
        -1,
        -1,
        7038,
        -1,
        7040,
        -1,
        -1,
        7043,
        7044,
        -1,
        7046,
        -1,
        -1,
        7049,
        -1,
        -1,
        7052,
        -1,
        7054,
        -1,
        7056,
        -1,
        -1,
        7059,
        7060,
        7061,
        7062,
        7063,
        7064,
        7065,
        7066,
        7067,
        7068,
        -1,
        7070,
        -1,
        -1,
        7073,
        7074,
        7075,
        -1,
        -1,
        -1,
        -1,
        -1,
        7081,
        7082,
        7083,
        7084,
        -1,
        7086,
        -1,
        -1,
        -1,
        -1,
        7091,
        -1,
        7093,
        -1,
        7095,
        -1,
        -1,
        7098,
        7099,
        7100,
        7101,
        7102,
        -1,
        7104,
        7105,
        -1,
        -1,
        7108,
        7109,
        -1,
        7111,
        7112,
        -1,
        -1,
        -1,
        7116,
        -1,
        7118,
        -1,
        7120,
        -1,
        7122,
        -1,
        -1,
        -1,
        7126,
        7127,
        7128,
        7129,
        7130,
        -1,
        -1,
        7133,
        7134,
        7135,
        -1,
        -1,
        7138,
        -1,
        -1,
        -1,
        -1,
        -1,
        7144,
        7145,
        -1,
        -1,
        7148,
        -1,
        7150,
        -1,
        7152,
        -1,
        -1,
        7155,
        7156,
        7157,
        7158,
        7159,
        -1,
        -1,
        -1,
        -1,
        7164,
        -1,
        -1,
        7167,
        -1,
        7169,
        -1,
        7171,
        -1,
        7173,
        -1,
        7175,
        -1,
        7177,
        7178,
        -1,
        -1,
        -1,
        7182,
        7183,
        7184,
        7185,
        -1,
        7187,
        -1,
        -1,
        -1,
        7191,
        7192,
        7193,
        7194,
        7195,
        -1,
        7197,
        7198,
        7199,
        7200,
        7201,
        7202,
        -1,
        7204,
        -1,
        -1,
        -1,
        -1,
        -1,
        7210,
        7211,
        7212,
        7213,
        7214,
        -1,
        -1,
        -1,
        7218,
        7219,
        -1,
        -1,
        7222,
        -1,
        -1,
        7225,
        -1,
        7227,
        7228,
        -1,
        -1,
        7231,
        -1,
        -1,
        -1,
        -1,
        -1,
        7237,
        -1,
        7239,
        -1,
        -1,
        7242,
        7243,
        -1,
        7245,
        -1,
        -1,
        -1,
        7249,
        -1,
        7251,
        7252,
        7253,
        7254,
        -1,
        7256,
        7257,
        7258,
        -1,
        -1,
        7261,
        7262,
        -1,
        -1,
        -1,
        7266,
        -1,
        -1,
        -1,
        7270,
        -1,
        7272,
        -1,
        7274,
        -1,
        -1,
        7277,
        -1,
        7279,
        -1,
        -1,
        -1,
        -1,
        7284,
        7285,
        7286,
        -1,
        7288,
        -1,
        -1,
        -1,
        -1,
        7293,
        7294,
        7295,
        -1,
        7297,
        7298,
        -1,
        7300,
        -1,
        -1,
        7303,
        -1,
        -1,
        7306,
        7307,
        7308,
        7309,
        7310,
        -1,
        7312,
        -1,
        7314,
        -1,
        -1,
        -1,
        -1,
        -1,
        -1,
        7321,
        7322,
        7323,
        7324,
        -1,
        -1,
        -1,
        7328,
        7329,
        7330,
        -1,
        -1,
        7333,
        -1,
        7335,
        -1,
        7337,
        -1,
        -1,
        7340,
        7341,
        7342,
        -1,
        7344,
        -1,
        7346,
        7347,
        7348,
        -1,
        7350,
        -1,
        -1,
        -1,
        -1,
        -1,
        -1,
        7357,
        7358,
        -1,
        -1,
        -1,
        7362,
        7363,
        7364,
        7365,
        7366,
        7367,
        7368,
        7369,
        -1,
        7371,
        7372,
        -1,
        7374,
        -1,
        7376,
        -1,
        -1,
        7379,
        -1,
        7381,
        -1,
        7383,
        -1,
        7385,
        -1,
        -1,
        7388,
        7389,
        7390,
        -1,
        -1,
        7393,
        -1,
        7395,
        7396,
        7397,
        -1,
        -1,
        -1,
        -1,
        7402,
        7403,
        7404,
        -1,
        -1,
        -1,
        7408,
        7409,
        7410,
        7411,
        -1,
        -1,
        -1,
        -1,
        -1,
        7417,
        7418,
        7419,
        7420,
        7421,
        7422,
        7423,
        -1,
        -1,
        -1,
        7427,
        -1,
        7429,
        -1,
        7431,
        7432,
        7433,
        -1,
        7435,
        7436,
        -1,
        7438,
        -1,
        -1,
        -1,
        -1,
        7443,
        -1,
        7445,
        -1,
        -1,
        7448,
        7449,
        7450,
        -1,
        7452,
        -1,
        7454,
        7455,
        7456,
        7457,
        7458,
        -1,
        -1,
        7461,
        -1,
        -1,
        -1,
        -1,
        7466,
        -1,
        7468,
        -1,
        7470,
        -1,
        7472,
        -1,
        -1,
        7475,
        7476,
        7477,
        -1,
        -1,
        -1,
        7481,
        -1,
        -1,
        7484,
        -1,
        -1,
        7487,
        7488,
        -1,
        7490,
        -1,
        7492,
        -1,
        7494,
        -1,
        7496,
        -1,
        -1,
        7499,
        -1,
        -1,
        7502,
        -1,
        7504,
        -1,
        7506,
        7507,
        -1,
        7509,
        7510,
        -1,
        -1,
        -1,
        7514,
        -1,
        7516,
        7517,
        -1,
        7519,
        -1,
        -1,
        -1,
        7523,
        -1,
        7525,
        -1,
        7527,
        7528,
        7529,
        -1,
        7531,
        7532,
        7533,
        -1,
        7535,
        -1,
        -1,
        7538,
        -1,
        7540,
        -1,
        -1,
        7543,
        -1,
        7545,
        -1,
        7547,
        -1,
        7549,
        7550,
        7551,
        -1,
        -1,
        7554,
        -1,
        -1,
        -1,
        7558,
        7559,
        7560,
        7561,
        -1,
        -1,
        -1,
        7565,
        -1,
        7567,
        -1,
        -1,
        -1,
        7571,
        7572,
        7573,
        7574,
        -1,
        7576,
        -1,
        7578,
        -1,
        -1,
        -1,
        -1,
        7583,
        -1,
        7585,
        7586,
        7587,
        7588,
        7589,
        -1,
        -1,
        -1,
        -1,
        -1,
        7595,
        -1,
        7597,
        -1,
        -1,
        -1,
        7601,
        7602,
        7603,
        -1,
        -1,
        -1,
        -1,
        7608,
        -1,
        7610,
        7611,
        7612,
        7613,
        7614,
        -1,
        7616,
        -1,
        -1,
        7619,
        7620,
        -1,
        7622,
        7623,
        7624,
        -1,
        7626,
        -1,
        7628,
        -1,
        -1,
        -1,
        -1,
        -1,
        7634,
        -1,
        7636,
        -1,
        7638,
        7639,
        7640,
        7641,
        7642,
        -1,
        -1,
        -1,
        -1,
        7647,
        7648,
        7649,
        7650,
        7651,
        7652,
        7653,
        -1,
        -1,
        -1,
        7657,
        7658,
        7659,
        -1,
        -1,
        -1,
        7663,
        -1,
        7665,
        -1,
        -1,
        7668,
        -1,
        7670,
        -1,
        -1,
        7673,
        -1,
        7675,
        -1,
        -1,
        7678,
        -1,
        7680,
        -1,
        7682,
        -1,
        7684,
        -1,
        -1,
        -1,
        7688,
        -1,
        7690,
        -1,
        7692,
        -1,
        -1,
        7695,
        7696,
        -1,
        7698,
        -1,
        7700,
        7701,
        -1,
        7703,
        -1,
        7705,
        -1,
        -1,
        7708,
